digraph Tree {
node [shape=box, style="filled, rounded", color="black", fontname="helvetica"] ;
edge [fontname="helvetica"] ;
0 [label="x2 <= 0.241\ngini = 0.5\nsamples = 8000\nvalue = [4031, 3969]\nclass = 0", fillcolor="#fffdfc"] ;
1 [label="x1 <= -0.469\ngini = 0.356\nsamples = 4021\nvalue = [931, 3090]\nclass = 1", fillcolor="#75bbed"] ;
0 -> 1 [labeldistance=2.5, labelangle=45, headlabel="True"] ;
3 [label="x1 <= -0.662\ngini = 0.201\nsamples = 440\nvalue = [390, 50]\nclass = 0", fillcolor="#e89152"] ;
1 -> 3 ;
15 [label="gini = 0.077\nsamples = 349\nvalue = [335, 14]\nclass = 0", fillcolor="#e68641"] ;
3 -> 15 ;
16 [label="x2 <= -0.147\ngini = 0.478\nsamples = 91\nvalue = [55, 36]\nclass = 0", fillcolor="#f6d3bb"] ;
3 -> 16 ;
37 [label="gini = 0.451\nsamples = 32\nvalue = [11, 21]\nclass = 1", fillcolor="#a1d0f3"] ;
16 -> 37 ;
38 [label="gini = 0.379\nsamples = 59\nvalue = [44, 15]\nclass = 0", fillcolor="#eeac7c"] ;
16 -> 38 ;
4 [label="x2 <= -0.062\ngini = 0.257\nsamples = 3581\nvalue = [541, 3040]\nclass = 1", fillcolor="#5caeea"] ;
1 -> 4 ;
7 [label="x2 <= -0.531\ngini = 0.146\nsamples = 2399\nvalue = [190, 2209]\nclass = 1", fillcolor="#4aa5e7"] ;
4 -> 7 ;
29 [label="gini = 0.04\nsamples = 885\nvalue = [18, 867]\nclass = 1", fillcolor="#3d9fe6"] ;
7 -> 29 ;
30 [label="x1 <= 1.604\ngini = 0.201\nsamples = 1514\nvalue = [172, 1342]\nclass = 1", fillcolor="#52aae8"] ;
7 -> 30 ;
31 [label="gini = 0.242\nsamples = 1194\nvalue = [168, 1026]\nclass = 1", fillcolor="#59ade9"] ;
30 -> 31 ;
32 [label="gini = 0.025\nsamples = 320\nvalue = [4, 316]\nclass = 1", fillcolor="#3c9ee5"] ;
30 -> 32 ;
8 [label="x1 <= 1.508\ngini = 0.418\nsamples = 1182\nvalue = [351, 831]\nclass = 1", fillcolor="#8dc6f0"] ;
4 -> 8 ;
11 [label="x1 <= 0.482\ngini = 0.476\nsamples = 870\nvalue = [340, 530]\nclass = 1", fillcolor="#b8dcf6"] ;
8 -> 11 ;
23 [label="x1 <= -0.161\ngini = 0.418\nsamples = 376\nvalue = [112, 264]\nclass = 1", fillcolor="#8dc7f0"] ;
11 -> 23 ;
25 [label="gini = 0.5\nsamples = 93\nvalue = [47, 46]\nclass = 0", fillcolor="#fefcfb"] ;
23 -> 25 ;
26 [label="gini = 0.354\nsamples = 283\nvalue = [65, 218]\nclass = 1", fillcolor="#74baed"] ;
23 -> 26 ;
24 [label="x2 <= 0.129\ngini = 0.497\nsamples = 494\nvalue = [228, 266]\nclass = 1", fillcolor="#e3f1fb"] ;
11 -> 24 ;
27 [label="gini = 0.472\nsamples = 311\nvalue = [119, 192]\nclass = 1", fillcolor="#b4daf5"] ;
24 -> 27 ;
28 [label="gini = 0.482\nsamples = 183\nvalue = [109, 74]\nclass = 0", fillcolor="#f7d7bf"] ;
24 -> 28 ;
12 [label="gini = 0.068\nsamples = 312\nvalue = [11, 301]\nclass = 1", fillcolor="#40a1e6"] ;
8 -> 12 ;
2 [label="x1 <= 1.395\ngini = 0.344\nsamples = 3979\nvalue = [3100, 879]\nclass = 0", fillcolor="#eca571"] ;
0 -> 2 [labeldistance=2.5, labelangle=-45, headlabel="False"] ;
5 [label="x2 <= 0.521\ngini = 0.238\nsamples = 3522\nvalue = [3036, 486]\nclass = 0", fillcolor="#e99559"] ;
2 -> 5 ;
9 [label="x1 <= -0.386\ngini = 0.416\nsamples = 988\nvalue = [696, 292]\nclass = 0", fillcolor="#f0b68c"] ;
5 -> 9 ;
13 [label="gini = 0.106\nsamples = 303\nvalue = [286, 17]\nclass = 0", fillcolor="#e78845"] ;
9 -> 13 ;
14 [label="x1 <= 0.504\ngini = 0.481\nsamples = 685\nvalue = [410, 275]\nclass = 0", fillcolor="#f6d6be"] ;
9 -> 14 ;
17 [label="x2 <= 0.39\ngini = 0.5\nsamples = 361\nvalue = [177, 184]\nclass = 1", fillcolor="#f7fbfe"] ;
14 -> 17 ;
35 [label="gini = 0.471\nsamples = 174\nvalue = [66, 108]\nclass = 1", fillcolor="#b2d9f5"] ;
17 -> 35 ;
36 [label="gini = 0.482\nsamples = 187\nvalue = [111, 76]\nclass = 0", fillcolor="#f7d7c1"] ;
17 -> 36 ;
18 [label="gini = 0.404\nsamples = 324\nvalue = [233, 91]\nclass = 0", fillcolor="#efb286"] ;
14 -> 18 ;
10 [label="x2 <= 0.855\ngini = 0.141\nsamples = 2534\nvalue = [2340, 194]\nclass = 0", fillcolor="#e78b49"] ;
5 -> 10 ;
21 [label="x1 <= -0.578\ngini = 0.234\nsamples = 1121\nvalue = [969, 152]\nclass = 0", fillcolor="#e99558"] ;
10 -> 21 ;
33 [label="gini = 0.046\nsamples = 255\nvalue = [249, 6]\nclass = 0", fillcolor="#e6843e"] ;
21 -> 33 ;
34 [label="gini = 0.28\nsamples = 866\nvalue = [720, 146]\nclass = 0", fillcolor="#ea9b61"] ;
21 -> 34 ;
22 [label="gini = 0.058\nsamples = 1413\nvalue = [1371, 42]\nclass = 0", fillcolor="#e6853f"] ;
10 -> 22 ;
6 [label="x1 <= 1.782\ngini = 0.241\nsamples = 457\nvalue = [64, 393]\nclass = 1", fillcolor="#59ade9"] ;
2 -> 6 ;
19 [label="gini = 0.431\nsamples = 175\nvalue = [55, 120]\nclass = 1", fillcolor="#94caf1"] ;
6 -> 19 ;
20 [label="gini = 0.062\nsamples = 282\nvalue = [9, 273]\nclass = 1", fillcolor="#40a0e6"] ;
6 -> 20 ;
}